<?xml version="1.0"?>
<opencv_storage>
<cascade>
  <stageType>BOOST</stageType>
  <featureType>HAAR</featureType>
  <height>24</height>
  <width>24</width>
  <stageParams>
    <boostType>GAB</boostType>
    <minHitRate>9.9500000476837158e-01</minHitRate>
    <maxFalseAlarm>5.0000000000000000e-01</maxFalseAlarm>
    <weightTrimRate>9.4999999999999996e-01</weightTrimRate>
    <maxDepth>1</maxDepth>
    <maxWeakCount>100</maxWeakCount></stageParams>
  <featureParams>
    <maxCatCount>0</maxCatCount>
    <featSize>1</featSize>
    <mode>BASIC</mode></featureParams>
  <stageNum>11</stageNum>
  <stages>
    <!-- stage 0 -->
    <_>
      <maxWeakCount>1</maxWeakCount>
      <stageThreshold>1.</stageThreshold>
      <weakClassifiers>
        <_>
          <internalNodes>
            0 -1 0 9.7787901759147644e-02</internalNodes>
          <leafValues>
            -1. 1.</leafValues></_></weakClassifiers></_>
    <!-- stage 1 -->
    <_>
      <maxWeakCount>1</maxWeakCount>
      <stageThreshold>1.</stageThreshold>
      <weakClassifiers>
        <_>
          <internalNodes>
            0 -1 9 6.1633437871932983e-02</internalNodes>
          <leafValues>
            -1. 1.</leafValues></_></weakClassifiers></_>
    <!-- stage 2 -->
    <_>
      <maxWeakCount>2</maxWeakCount>
      <stageThreshold>-3.6442637443542480e-02</stageThreshold>
      <weakClassifiers>
        <_>
          <internalNodes>
            0 -1 5 1.0038559138774872e-01</internalNodes>
          <leafValues>
            -9.5555555820465088e-01 8.6046510934829712e-01</leafValues></_>
        <_>
          <internalNodes>
            0 -1 1 1.0766422748565674e-01</internalNodes>
          <leafValues>
            -8.9647924900054932e-01 9.1911292076110840e-01</leafValues></_></weakClassifiers></_>
    <!-- stage 3 -->
    <_>
      <maxWeakCount>1</maxWeakCount>
      <stageThreshold>8.2222223281860352e-01</stageThreshold>
      <weakClassifiers>
        <_>
          <internalNodes>
            0 -1 12 -4.9376785755157471e-02</internalNodes>
          <leafValues>
            8.2222223281860352e-01 -1.</leafValues></_></weakClassifiers></_>
    <!-- stage 4 -->
    <_>
      <maxWeakCount>2</maxWeakCount>
      <stageThreshold>-8.9890129864215851e-02</stageThreshold>
      <weakClassifiers>
        <_>
          <internalNodes>
            0 -1 3 1.4374281466007233e-01</internalNodes>
          <leafValues>
            -8.3673471212387085e-01 8.9743590354919434e-01</leafValues></_>
        <_>
          <internalNodes>
            0 -1 8 1.4968125149607658e-02</internalNodes>
          <leafValues>
            -9.6179771423339844e-01 7.4684458971023560e-01</leafValues></_></weakClassifiers></_>
    <!-- stage 5 -->
    <_>
      <maxWeakCount>2</maxWeakCount>
      <stageThreshold>-5.0735913217067719e-02</stageThreshold>
      <weakClassifiers>
        <_>
          <internalNodes>
            0 -1 15 1.0948117822408676e-02</internalNodes>
          <leafValues>
            -8.7755101919174194e-01 9.4871795177459717e-01</leafValues></_>
        <_>
          <internalNodes>
            0 -1 10 1.4894071966409683e-02</internalNodes>
          <leafValues>
            -1. 8.2681512832641602e-01</leafValues></_></weakClassifiers></_>
    <!-- stage 6 -->
    <_>
      <maxWeakCount>2</maxWeakCount>
      <stageThreshold>-2.6005995273590088e-01</stageThreshold>
      <weakClassifiers>
        <_>
          <internalNodes>
            0 -1 16 1.5322809107601643e-02</internalNodes>
          <leafValues>
            -9.5121949911117554e-01 7.0212763547897339e-01</leafValues></_>
        <_>
          <internalNodes>
            0 -1 14 7.3315612971782684e-03</internalNodes>
          <leafValues>
            -9.6218758821487427e-01 7.0030158758163452e-01</leafValues></_></weakClassifiers></_>
    <!-- stage 7 -->
    <_>
      <maxWeakCount>1</maxWeakCount>
      <stageThreshold>5.7692307233810425e-01</stageThreshold>
      <weakClassifiers>
        <_>
          <internalNodes>
            0 -1 13 -3.3129490911960602e-02</internalNodes>
          <leafValues>
            5.7692307233810425e-01 -1.</leafValues></_></weakClassifiers></_>
    <!-- stage 8 -->
    <_>
      <maxWeakCount>2</maxWeakCount>
      <stageThreshold>-3.5817012190818787e-02</stageThreshold>
      <weakClassifiers>
        <_>
          <internalNodes>
            0 -1 4 -1.3559485785663128e-02</internalNodes>
          <leafValues>
            7.0212763547897339e-01 -9.5121949911117554e-01</leafValues></_>
        <_>
          <internalNodes>
            0 -1 11 -1.7222560942173004e-02</internalNodes>
          <leafValues>
            1. -7.3794466257095337e-01</leafValues></_></weakClassifiers></_>
    <!-- stage 9 -->
    <_>
      <maxWeakCount>2</maxWeakCount>
      <stageThreshold>1.6152488067746162e-02</stageThreshold>
      <weakClassifiers>
        <_>
          <internalNodes>
            0 -1 6 6.8475186824798584e-02</internalNodes>
          <leafValues>
            -6.2068963050842285e-01 1.</leafValues></_>
        <_>
          <internalNodes>
            0 -1 7 4.1155010461807251e-02</internalNodes>
          <leafValues>
            -1. 6.3684213161468506e-01</leafValues></_></weakClassifiers></_>
    <!-- stage 10 -->
    <_>
      <maxWeakCount>1</maxWeakCount>
      <stageThreshold>6.0784316062927246e-01</stageThreshold>
      <weakClassifiers>
        <_>
          <internalNodes>
            0 -1 2 3.9060462731868029e-03</internalNodes>
          <leafValues>
            -1. 6.0784316062927246e-01</leafValues></_></weakClassifiers></_></stages>
  <features>
    <_>
      <rects>
        <_>
          0 0 19 10 -1.</_>
        <_>
          0 5 19 5 2.</_></rects>
      <tilted>0</tilted></_>
    <_>
      <rects>
        <_>
          0 2 8 16 -1.</_>
        <_>
          4 2 4 16 2.</_></rects>
      <tilted>0</tilted></_>
    <_>
      <rects>
        <_>
          0 2 16 3 -1.</_>
        <_>
          8 2 8 3 2.</_></rects>
      <tilted>0</tilted></_>
    <_>
      <rects>
        <_>
          0 5 8 16 -1.</_>
        <_>
          4 5 4 16 2.</_></rects>
      <tilted>0</tilted></_>
    <_>
      <rects>
        <_>
          0 6 8 8 -1.</_>
        <_>
          0 6 4 4 2.</_>
        <_>
          4 10 4 4 2.</_></rects>
      <tilted>0</tilted></_>
    <_>
      <rects>
        <_>
          0 10 10 11 -1.</_>
        <_>
          5 10 5 11 2.</_></rects>
      <tilted>0</tilted></_>
    <_>
      <rects>
        <_>
          2 2 4 20 -1.</_>
        <_>
          4 2 2 20 2.</_></rects>
      <tilted>0</tilted></_>
    <_>
      <rects>
        <_>
          3 0 10 20 -1.</_>
        <_>
          3 0 5 10 2.</_>
        <_>
          8 10 5 10 2.</_></rects>
      <tilted>0</tilted></_>
    <_>
      <rects>
        <_>
          7 5 6 10 -1.</_>
        <_>
          7 5 3 5 2.</_>
        <_>
          10 10 3 5 2.</_></rects>
      <tilted>0</tilted></_>
    <_>
      <rects>
        <_>
          7 12 11 12 -1.</_>
        <_>
          7 16 11 4 3.</_></rects>
      <tilted>0</tilted></_>
    <_>
      <rects>
        <_>
          9 1 10 9 -1.</_>
        <_>
          14 1 5 9 2.</_></rects>
      <tilted>0</tilted></_>
    <_>
      <rects>
        <_>
          9 21 6 3 -1.</_>
        <_>
          11 21 2 3 3.</_></rects>
      <tilted>0</tilted></_>
    <_>
      <rects>
        <_>
          14 0 10 15 -1.</_>
        <_>
          19 0 5 15 2.</_></rects>
      <tilted>0</tilted></_>
    <_>
      <rects>
        <_>
          16 15 8 7 -1.</_>
        <_>
          20 15 4 7 2.</_></rects>
      <tilted>0</tilted></_>
    <_>
      <rects>
        <_>
          18 5 4 10 -1.</_>
        <_>
          18 5 2 5 2.</_>
        <_>
          20 10 2 5 2.</_></rects>
      <tilted>0</tilted></_>
    <_>
      <rects>
        <_>
          19 2 4 14 -1.</_>
        <_>
          19 2 2 7 2.</_>
        <_>
          21 9 2 7 2.</_></rects>
      <tilted>0</tilted></_>
    <_>
      <rects>
        <_>
          22 2 2 21 -1.</_>
        <_>
          22 9 2 7 3.</_></rects>
      <tilted>0</tilted></_></features></cascade>
</opencv_storage>
